digraph Tree {
node [shape=box, style="filled", color="black", fontname="helvetica"] ;
edge [fontname="helvetica"] ;
0 [label=<tenure &le; -0.647<br/>gini = 0.389<br/>samples = 100.0%<br/>value = [0.736, 0.264]<br/>class = y<SUB>0</SUB>>, fillcolor="#eeae80"] ;
1 [label=<InternetService_Fiber optic &le; 0.133<br/>gini = 0.496<br/>samples = 36.1%<br/>value = [0.542, 0.458]<br/>class = y<SUB>0</SUB>>, fillcolor="#fbebe0"] ;
0 -> 1 [labeldistance=2.5, labelangle=45, headlabel="True"] ;
2 [label=<gini = 0.418<br/>samples = 20.7%<br/>value = [0.703, 0.297]<br/>class = y<SUB>0</SUB>>, fillcolor="#f0b68d"] ;
1 -> 2 ;
3 [label=<gini = 0.439<br/>samples = 15.4%<br/>value = [0.326, 0.674]<br/>class = y<SUB>1</SUB>>, fillcolor="#99ccf2"] ;
1 -> 3 ;
4 [label=<InternetService_Fiber optic &le; 0.133<br/>gini = 0.261<br/>samples = 63.9%<br/>value = [0.846, 0.154]<br/>class = y<SUB>0</SUB>>, fillcolor="#ea985d"] ;
0 -> 4 [labeldistance=2.5, labelangle=-45, headlabel="False"] ;
5 [label=<gini = 0.111<br/>samples = 35.9%<br/>value = [0.941, 0.059]<br/>class = y<SUB>0</SUB>>, fillcolor="#e78945"] ;
4 -> 5 ;
6 [label=<gini = 0.4<br/>samples = 28.0%<br/>value = [0.724, 0.276]<br/>class = y<SUB>0</SUB>>, fillcolor="#efb184"] ;
4 -> 6 ;
}